<?xml version="1.0"?>
<opencv_storage>
<stage9>
  <maxWeakCount>7</maxWeakCount>
  <stageThreshold>-1.7100571393966675e+00</stageThreshold>
  <weakClassifiers>
    <_>
      <internalNodes>
        0 -1 2335 9.0940333902835846e-02</internalNodes>
      <leafValues>
        -6.5633803606033325e-01 7.3333334922790527e-01</leafValues></_>
    <_>
      <internalNodes>
        0 -1 76 -1.2428691610693932e-02</internalNodes>
      <leafValues>
        6.2354111671447754e-01 -3.4259909391403198e-01</leafValues></_>
    <_>
      <internalNodes>
        0 -1 81372 2.8293497860431671e-02</internalNodes>
      <leafValues>
        -4.6834859251976013e-01 3.5620975494384766e-01</leafValues></_>
    <_>
      <internalNodes>
        0 -1 166 4.2358846403658390e-03</internalNodes>
      <leafValues>
        2.2125783562660217e-01 -7.5041973590850830e-01</leafValues></_>
    <_>
      <internalNodes>
        0 -1 101758 -5.4193874821066856e-03</internalNodes>
      <leafValues>
        4.3560814857482910e-01 -3.9266851544380188e-01</leafValues></_>
    <_>
      <internalNodes>
        0 -1 55652 4.0822774171829224e-03</internalNodes>
      <leafValues>
        -4.0324217081069946e-01 4.3676364421844482e-01</leafValues></_>
    <_>
      <internalNodes>
        0 -1 70764 1.1086531449109316e-03</internalNodes>
      <leafValues>
        -4.9639517068862915e-01 3.2491105794906616e-01</leafValues></_></weakClassifiers></stage9>
</opencv_storage>
