<?xml version="1.0"?>
<opencv_storage>
<stage13>
  <maxWeakCount>8</maxWeakCount>
  <stageThreshold>-8.9904624223709106e-01</stageThreshold>
  <weakClassifiers>
    <_>
      <internalNodes>
        0 -1 8161 7.7356803230941296e-03</internalNodes>
      <leafValues>
        -6.1904764175415039e-01 4.8837208747863770e-01</leafValues></_>
    <_>
      <internalNodes>
        0 -1 155327 -7.6867970637977123e-03</internalNodes>
      <leafValues>
        3.9959782361984253e-01 -3.7296244502067566e-01</leafValues></_>
    <_>
      <internalNodes>
        0 -1 3358 -1.4319019392132759e-02</internalNodes>
      <leafValues>
        3.8607075810432434e-01 -3.4182357788085938e-01</leafValues></_>
    <_>
      <internalNodes>
        0 -1 97977 3.3955071121454239e-03</internalNodes>
      <leafValues>
        -2.1019582450389862e-01 6.6701638698577881e-01</leafValues></_>
    <_>
      <internalNodes>
        0 -1 160938 -1.1120142880827188e-03</internalNodes>
      <leafValues>
        5.5134570598602295e-01 -2.2974725067615509e-01</leafValues></_>
    <_>
      <internalNodes>
        0 -1 36325 3.2235547900199890e-02</internalNodes>
      <leafValues>
        -1.9328251481056213e-01 6.8463689088821411e-01</leafValues></_>
    <_>
      <internalNodes>
        0 -1 160698 1.4297933084890246e-03</internalNodes>
      <leafValues>
        -2.3903793096542358e-01 5.6426960229873657e-01</leafValues></_>
    <_>
      <internalNodes>
        0 -1 152051 -1.1488072574138641e-02</internalNodes>
      <leafValues>
        7.0225036144256592e-01 -1.9340370595455170e-01</leafValues></_></weakClassifiers></stage13>
</opencv_storage>
