<?xml version="1.0"?>
<opencv_storage>
<stage8>
  <maxWeakCount>6</maxWeakCount>
  <stageThreshold>-1.1153925657272339e+00</stageThreshold>
  <weakClassifiers>
    <_>
      <internalNodes>
        0 -1 174 1.4918768778443336e-02</internalNodes>
      <leafValues>
        -6.9184291362762451e-01 4.2028984427452087e-01</leafValues></_>
    <_>
      <internalNodes>
        0 -1 145251 -4.8247918486595154e-02</internalNodes>
      <leafValues>
        3.8024079799652100e-01 -4.8167845606803894e-01</leafValues></_>
    <_>
      <internalNodes>
        0 -1 152092 3.9423227310180664e-02</internalNodes>
      <leafValues>
        -2.1947290003299713e-01 7.6917219161987305e-01</leafValues></_>
    <_>
      <internalNodes>
        0 -1 97023 -7.5973281636834145e-03</internalNodes>
      <leafValues>
        4.2953008413314819e-01 -4.2095819115638733e-01</leafValues></_>
    <_>
      <internalNodes>
        0 -1 41285 -1.4675238728523254e-01</internalNodes>
      <leafValues>
        6.8430632352828979e-01 -2.3334434628486633e-01</leafValues></_>
    <_>
      <internalNodes>
        0 -1 67965 4.7844182699918747e-03</internalNodes>
      <leafValues>
        2.2548502683639526e-01 -7.8050327301025391e-01</leafValues></_></weakClassifiers></stage8>
</opencv_storage>
